,0,1,2,3,4,5,6,7,8,9,10,11,12,13,14,15,16,17,18,19
0,"[ 0.67372525 -0.38401678  0.35307086  0.80124325  0.35675848  0.7937502
 -0.18142317 -0.2996309  -0.05795022  0.5039177   0.4188702  -0.84406275
 -0.8814627   0.37367067 -0.65756065 -1.0761802   0.914623   -1.124184  ]","[ 0.37104887 -0.6235525   0.8287188   0.82150984  0.70986986  0.44195366
 -0.67486274 -0.5741318   0.56978637  0.9136199   0.61909395 -0.8264274
 -1.3244381   1.0246414  -1.2644742  -0.527733    1.1718622  -0.937771  ]","[-0.5684259   2.042051   -0.83348346 -0.8682224  -0.96049285 -0.46369794
  0.86699635  0.54597586 -0.5378546  -0.8730306  -0.16824032  0.91993237
  0.84776765 -0.9206282   0.15380137  2.7686634  -0.12250463  0.94623053]","[-0.12853242 -0.91093314  0.5076734   0.6398363   0.14585735  0.32291502
 -0.743127   -0.6911353  -0.2789237   0.21853532  0.41753536 -0.62581253
 -1.0817317   1.0965415  -0.88837457 -0.53086716  0.59656984 -0.9015208 ]","[-0.5346284   1.6024728  -0.7077757  -0.6059744  -0.5009202  -0.28944996
  0.47749555  0.76073843  0.01528583 -0.3771746   0.24549215  0.94683135
  0.5928907  -0.3946846   0.81091064  2.5646672  -0.12426193  0.6506749 ]","[-3.6013758e-01  2.1800981e+00 -7.2811240e-01 -6.4904767e-01
 -2.5225291e-01 -4.1679713e-01  3.5582265e-01  5.0846195e-01
 -4.7407040e-01 -4.3901128e-01  4.2688858e-02  3.9715913e-01
  4.9145931e-01 -9.2310500e-01  3.5002071e-01  1.9397339e+00
 -1.3165689e-03  1.6042227e-01]","[-0.7570749   2.3746703  -0.41868594 -0.7939437  -0.18954009  0.14585374
  0.50529414  0.0837722  -0.15458502 -0.6296664   0.12052305  0.23570505
  0.3170681  -0.6121239   0.81720126  2.8579333  -0.03854053  0.86115617]","[-0.77490115  2.0826263  -0.44410428 -0.5378532  -0.6561732  -0.41172767
 -0.02646141  0.36008534 -0.28466478 -0.7203821  -0.01665151  0.50431716
  0.7256381  -0.57567555  0.3051479   1.677317   -0.14891098  0.9100722 ]","[-0.59925425  2.0171547  -0.62735033 -0.5524774  -0.5127206   0.05121888
  0.34697196  0.00566146 -0.6706695  -0.79894364 -0.6384463  -0.03862999
  0.6608287  -0.09283409  0.74412686  2.230112    0.01806589  0.32308686]","[ 0.18239135  2.1859772  -0.3992991  -0.65087754 -0.23643772 -0.1550396
  0.6737093   0.67264575 -0.58209515 -0.43551633  0.06068965  0.9976687
  0.5920342  -0.7262764   0.28879762  2.024332   -0.32993022  0.20058751]","[ 0.30910897  1.3132092  -0.4963566  -0.29290193 -0.04013653 -0.09225412
  0.44532362  0.98032326 -0.5986669  -0.28489015  0.01040203  0.80115616
  0.13359532 -1.3123044   0.24670786  1.6197548  -0.8079392   0.1019184 ]","[-0.76321405  1.6427784  -0.5842487  -0.8740925  -0.51906353 -0.3091793
  0.04909372 -0.03880911 -0.23727372 -0.64242566 -0.394877   -0.03961857
  0.20177661  0.0181349   0.63933647  2.4846013  -0.41736904  0.5662043 ]","[-2.2414532   1.380869   -0.5136252  -0.79982185 -0.9681076  -0.35581693
 -0.92335993 -0.5304624  -0.1145927  -1.0149606  -0.5372527  -0.887514
  1.3187429   0.74541676  1.2444341   1.7313054  -0.17960183  1.4164282 ]","[ 1.4928997  -0.8065065   0.9155409   0.9980308   0.3338729   0.4885037
 -0.06440762 -0.16411969 -0.19103539  0.9583769   0.3665562  -0.28244305
 -1.0741855   0.4059126  -0.8351874  -0.4494087   1.2455658  -1.38091   ]","[-0.8404447   1.3233733  -0.7636538  -0.2712045  -0.6319805  -0.47312158
  0.41684845  0.51600546 -0.4720553  -0.6721336  -0.43553478  0.22667462
  0.13019925 -0.26002744  0.13255183  2.1623478   0.19869776  0.6183783 ]","[ 1.4854639  -0.41177315  0.8845929   0.89813703  1.0950406   0.7977264
  0.07145227  0.18736969  0.55303574  0.68527454  0.59730875 -0.43104836
 -1.302572   -0.04692261 -1.2350434  -0.68875587  1.5040054  -1.3509647 ]","[ 0.58733445 -0.5832467   0.1995374   0.9212842   0.9558534   0.32599312
 -0.784232   -0.4413734   0.14202948  1.1937264   0.6422035  -0.38764855
 -0.8301065   0.7737851  -1.0539012  -0.50765     1.2556753  -1.2969859 ]","[ 1.2379861  -0.7549717   0.9424357   0.9458098   0.92211324  0.70617056
 -0.03675208 -0.3864379   0.54209447  1.174514    0.8848434  -0.7936143
 -1.0900867   0.38891858 -1.2380891  -0.25016594  1.6608893  -1.0392272 ]","[ 0.42051378  2.0953176  -0.23312213 -0.4346215  -0.24183929 -0.41678226
  0.7390207   0.3899341  -0.61116606 -0.15284242 -0.42946357  1.246644
  0.28665116 -1.1950572   0.21341975  2.081166    0.09863339  0.07164534]","[-1.3718928   1.978496   -0.9607115  -0.5285594  -0.9996849  -0.01854741
  0.37761402  0.24348661 -0.10150723 -0.51165783 -0.14772646  0.01799585
  0.8050551   0.09887154  0.551776    2.795297   -0.19248393  1.0191406 ]"
1,-0.28641954,0.1700598,-0.14048325,0.062877566,-0.022514189,0.23572364,-0.34706366,-0.054735914,-0.03999974,0.18733239,0.22436601,-0.33240238,-0.1396704,0.33869535,-0.33013397,0.16415417,0.45172915,-0.15865372,,
