,0,1,2,3,4,5,6,7,8,9,10,11,12,13,14,15,16,17,18,19,20,21,22,23,24,25,26,27,28,29
0,"[-0.18186405  0.16556461  0.01394441 -0.00352374 -0.01757322 -1.1176982
 -0.16595867  0.83031535  0.0355939  -0.96977973 -0.02226313 -0.07371703
  0.06614392  0.04622383 -0.07487423  1.280413   -0.03754516  0.10865942
  0.03864928  0.07358645 -0.26291382 -0.15654562 -0.9817731   0.03514178
 -0.11016611  0.0501495   0.14884894  0.5653668   0.14109889  0.20298879]","[-2.0452744e-01 -5.1857000e-03 -1.9626501e+00  1.4893857e+00
 -1.7826801e-02 -4.6679088e-01  4.6883453e-02  8.0522573e-01
 -1.7088161e-01 -2.7096897e-01 -5.2828081e-02 -1.4785257e-01
 -2.0583403e-01 -4.5381162e-01 -3.2444882e-01 -6.0055095e-01
 -2.0766103e+00  2.0295262e-01  9.0992995e-02 -2.6659608e-02
 -5.0261500e-04 -3.4091029e-01 -7.7390328e-02 -1.1905102e-02
  2.0345649e-02 -8.9033735e-01  7.2293438e-02 -9.0404302e-03
 -5.0030619e-02 -5.9759349e-02]","[ 0.14472158  0.08673021  0.11969444  0.06681599  0.85083246 -0.13807277
  0.00906825  0.12624298  0.23552679  0.06863496 -0.23518495  0.20510472
  0.05242696 -0.27538973  0.29962584  0.8561976   0.25002035 -0.6446243
 -0.05802948  0.00753216 -0.06467742 -0.33848652  0.02279309 -0.05175856
 -0.01604463  0.37545982  0.03762181 -0.03806896  0.04808266 -0.02570438]","[-0.18129063  0.01368569 -0.05119229 -0.19747098  0.01777604  0.29838467
  0.08517011 -0.16607565 -0.01894958  0.30521634 -0.13866745 -0.07082156
  0.09901234  0.25509134  0.3866708   0.3656781  -0.02025371  0.03981713
  0.02999895  0.04119307 -0.03588446  0.3605654   0.55099773 -0.0048806
  0.00539624  0.29586655  0.11943117  0.00319039 -0.0038775  -0.06665248]","[-0.51651776  0.01445727 -0.20305301  0.11130679  0.01507388  0.57925147
  0.11585889  0.13442935  0.2924378  -0.9456864  -0.02145578  0.44398168
 -0.30451027 -0.02948911 -0.32088977  0.95724994 -0.03426293 -1.0728333
  0.17317079 -0.03588378  0.02964784 -0.21996093 -0.590098    0.02045302
 -0.01927085  0.8464022  -0.05423358 -0.0188046   0.01145414 -0.00859933]","[ 4.0199178e-01 -1.0551909e-01  1.8437466e-01 -1.9589823e-02
 -8.9355820e-01 -1.0430638e-02 -1.7483276e-01  4.3117568e-01
 -2.7370527e-01 -3.4172657e-01 -2.1286127e-01 -4.9011520e-01
  1.5097210e-01  3.6080471e-01  4.6544230e-01  2.6594076e-01
 -1.9966088e-01  7.8172100e-01 -1.1955852e-01 -1.0719916e-04
  7.0246086e-02  6.0529613e-01  1.5586339e-01  4.4327375e-02
  1.3075545e-02  1.6362466e+00 -1.0854930e-01  3.0339992e-02
 -2.3088474e-02  9.4791315e-02]","[ 1.5307413   3.1880581  -0.23856272 -1.6826723  -3.4848158   0.4145291
  0.7906381   0.09328973  0.8314863   0.03266789  0.26323828 -3.717213
 -0.01083995  0.5028836  -0.9625092  -0.7701652   0.27127117  1.1489187
 -0.7578836   0.1564971  -0.604953    0.43062413 -1.6384342  -2.826827
 -1.289198   -0.8472173   0.8753041  -0.49018538  0.72366536 -2.2489898 ]","[-0.6237648  -0.01130558 -0.06000536 -0.10967381  0.03602027 -0.26769686
  0.04575309 -0.7882145  -0.9420502  -0.63704497  0.24637009  1.1321645
  0.26613355 -0.46512693 -0.1353913   0.62510026  0.11523933  0.16821563
  0.05056528 -0.02315537 -0.0295402   0.6961822   0.03840103 -0.13087092
  0.06571171 -2.2047193   0.11189736  0.06922488 -0.4460011  -0.0747782 ]","[-0.2809705  -0.02065532 -3.0600858  -0.81747276  0.05439734  1.3126816
 -0.10452943  0.11718321 -0.17595585 -0.9315697  -0.05691212 -0.40697137
 -0.2399082   0.2765417  -1.6385993  -1.665905    1.4021811  -0.3426316
 -0.03917072  0.07899327 -0.0648419   0.41390333 -0.20067954  0.02817444
 -0.05146729 -1.0412964  -0.02118435  0.078267   -0.05802625 -0.09013341]","[ 1.9150656   0.14609185 -0.1671798  -0.5767706   0.25585938 -0.03255215
 -0.20516215 -0.702447   -1.7789317  -0.4190289  -0.16715722 -0.24853368
 -0.72814155 -0.23033455 -0.22220007  0.07539199  0.05952224  0.63743174
 -1.0055933   0.05796113  0.11184165  1.0729798   0.5822034   3.9295762
  0.2717399  -0.6531349  -2.540728    0.13978341 -1.521579   -0.37412646]","[ 0.11986668  0.67598885  0.6422889  -1.2978334   1.5218532   0.28308117
  3.311866    0.28749555 -0.59546876  2.9141977   0.26806876  3.4542005
  2.1053061  -1.5034016   4.678507   -0.74595267  1.437563    1.631249
  0.66525584  0.663997   -1.8069851   0.46231312 -0.5640938  -0.6444948
  0.10793775  1.3907576   2.718205    0.4730238  -1.3932672  -2.1962814 ]","[ 7.3650923   4.5622673  -6.5532584   2.864021   -1.5646447   0.8720081
  2.8322196  -0.2314547  -1.5323923   0.30991203  0.26054502  0.3395678
  9.591699    5.8518853  -2.8966048  -0.2987517  -1.3000282   5.0082684
 -4.513432   -1.9398444  -5.819029   -7.0732093   3.9649942  10.816544
  6.1783223   1.1945988   9.254291    3.8054988  -6.593733   -5.909412  ]","[  8.138377    -1.1040195   -4.251504     2.285757     2.4498732
   0.12694564   1.7084599    0.02627132 -11.345992    -0.27892947
  -0.04104385   3.182811    -1.1775485    3.9568667   -3.8752391
   0.1271357    1.0857265    5.5129776   -0.7698531   -1.0800997
  -2.729736    -4.775649     1.4728464   -1.6502856   -0.10556037
   3.6324568    0.3250463   -0.21899074   0.3255297    0.04186117]","[ 0.975543    1.3183632   2.9181755  -0.31979275 -1.3457083  -1.558102
  1.2908823  -0.10094266  1.312685    2.1236453   0.18107264 -1.4077483
 -2.2674224  -0.75648576  3.0136647  -1.3193439   0.95302105  0.31988633
 -0.85160804  0.70046055 -1.1176391   2.0705762  -1.7874233  -2.2062807
 -1.6186297  -0.5932436   0.8203383  -0.97447383  2.2115912  -0.507738  ]","[-0.02817173  1.2085065  -0.4042144   0.14432076 -0.7948307   0.8103517
  1.4600055  -0.90343064  0.79752827 -2.7910194   0.27420387 -1.8935298
 -0.5497814  -2.5592031   0.04057864  2.6735132   0.8850634  -0.2548426
 -0.03271538  0.5786157  -0.34689814 -0.46439886 -1.1619216  -2.2540615
 -1.1741982   0.02951979  1.3104712  -1.2039803   1.8035305  -0.76575416]","[ 0.78769374  2.1049163  -0.9797844  -0.68798995  0.22684796  0.2596219
  0.02520926 -0.26067796  2.0743906  -0.12452279 -0.00663558 -0.64073235
  1.7949535   1.1483096   5.4696054   0.2954045   1.324349    1.8096039
 -0.70496064  0.34202084 -1.0487238  -2.186364    2.539631   -1.5486711
 -1.0217246  -0.06612444  0.70094794  0.76676893 -0.8045882  -0.7647414 ]","[  0.9822034    1.7571867   -0.99202406  -2.085415     0.8719618
  -0.89453113  -0.29950768  -0.8803122   -1.4448391   -4.553326
   0.19427983   0.4084754    1.9191449    3.506659    -9.114463
   1.8303303    0.72319     -2.3666074    5.25246      1.4995191
   0.29783344  -4.4270267   -5.7731667   -4.274369    -0.34044167
  -3.2719212  -10.073348    -0.73478806  -0.18417689  -2.3795292 ]","[-5.484034    1.7569709  -4.6062355   4.5954084  -6.098849   -0.17802627
  2.7931442   0.3277233   4.174802    0.04009621 -0.112026    2.2063222
  2.1709647  -1.6720806  -8.299067    0.25975814 -1.9139136  -0.3092196
 -0.350445    5.519746   -0.97282046  4.057649    5.45224     6.1385584
 -2.9362314   0.18314642  3.561954    2.9552321  -0.77740186 -3.720202  ]","[12.398364    0.14992183 -0.3776139  -0.7930932   0.17094263  0.9852493
  0.51897085 -0.612783    2.2662492   0.62832314 -0.02362633  1.0988176
  0.29652482  4.3945904   4.3026633   0.11747075  1.9028385   1.1388239
 -1.0057207   0.3809865   0.24001352  1.5331217  -1.169086   -0.5414336
  0.63900167 -0.08484138 -0.1124908   0.5185977   0.5453643   0.65033615]","[-0.36779281  0.9596448   0.16831201  0.11586765  0.00309557 -0.2932063
  0.80520314  0.71431863  0.3764625   0.01761006 -0.11122666  0.40716967
 -0.23006704  0.27974445  0.9780199   1.5362093   0.0813108   0.41636118
  0.52116585  0.2627884  -0.09689188 -1.315299   -0.82577586  0.15080562
  0.09252986  0.04425374 -0.1008963   0.8675185  -0.05630901 -0.31498033]","[-0.20226634 -0.6753368  -0.03000719 -0.17350152  0.03466513  0.56814337
 -0.6216289   1.2620434  -0.04339193  0.31848133  0.15786655 -0.06510548
 -0.14293583  0.15378165 -0.7754692  -1.1033762   0.03834309 -0.39220527
 -1.8681104   1.8488438  10.254856    1.2884735  -0.07840392  0.01372949
  6.109341   -0.19467373 -0.17378579  0.46004343  0.09209305  0.2078154 ]","[ 6.7502767e-01  3.0107675e+00 -1.0032957e+00 -2.1006362e+00
 -7.3634975e-02 -4.0820963e-03  7.4831839e+00  2.4589689e+00
 -2.2216673e-01  2.2599673e+00 -3.0768791e-01 -1.3173689e+00
 -3.2593462e-01  9.3555458e-02 -1.4479324e+00  3.4224784e+00
 -1.0580865e+00  1.9128826e+00  9.6890869e+00 -7.7896900e+00
  2.1809349e+00 -2.7115330e-01  2.1974621e+00  1.3502644e-01
 -2.3580942e+00  3.1704364e+00  1.2745763e+00  6.4566011e+00
 -8.9272398e-01  4.3982759e+00]","[ 0.89429635  2.632615    0.90322644 -0.5874007  -0.09462193 -0.07143586
  0.8160123  -0.06996109  0.01612168  0.21791898  0.21095163 -0.5956834
  0.18845052 -0.8940815   0.7373807  -0.47060975  0.77486634  0.708743
 -0.964702   -1.3190271  -0.6338535  -0.5868797  -2.0990193  -1.117928
 -2.4885545  -1.1092137   1.4339104  -0.9254998   0.89824903 -1.0095924 ]","[-0.41145375 -0.18857495  0.07467762 -0.6747611  -0.13311704 -0.37321562
 -2.6607282   0.3411369   0.21940185  0.4026484  -0.01066057 -0.01912008
  0.05731609 -0.08772781 -0.13009422 -0.745389    0.09885282 -0.5577433
  0.73531526  0.05021244  1.7819556   0.32200274 -0.2460042   0.16324303
  0.81656885 -1.1978294   0.5074398   0.15466732  0.64264035  0.41789898]","[ 0.64144784  0.08008102  0.40896377  0.27360976  0.00616439  0.24881744
 -2.6098828   0.2620716  -0.04633504 -0.0666808  -0.07009947 -0.15670648
 -0.18114951 -0.24767561 -0.12375183 -0.5886156   0.27877736 -0.74673605
  1.0293579   1.2596617   2.487487    0.3345391   0.5118697  -0.1629507
  1.085005   -0.66471094  0.11152406 -0.4578412  -0.05687999 -0.8458935 ]","[ 0.11736719  0.07561323  0.01098534 -0.19810592  0.00948004  0.48779196
  0.4301031   0.01185562  0.05521677  0.01039384  0.00780164 -0.13963793
 -0.08327816 -0.09670694  0.09060277  0.19067177 -0.06309266  0.25694495
 -1.0088179  -0.09418162  0.19557486 -0.18552184 -0.3254615  -0.06403772
  0.13502616 -0.03457457  0.08493296  1.2615715  -0.03136167 -0.03566968]","[-0.14124857 -0.3101379   0.37543294  0.5225655  -0.25860357  0.11306224
 -1.2617946  -0.5823929   0.6943964   1.1177369   0.07186642 -0.16093951
 -0.3810438  -0.07915018 -0.01092162 -0.98210174  0.03984486 -1.3029243
  2.6035993  -3.8025312   1.3483877   0.98585683 -0.12145413  0.21395071
  0.27340758 -0.3211625   0.32619813  1.302808    1.0203376  -0.26595184]","[ 2.09950447e-01 -1.84464169e+00  2.36012101e-01 -6.66394770e-01
  1.43431295e-02  2.64773577e-01 -4.92744654e-01 -7.31296546e-04
 -3.13946754e-01 -5.47581911e-02 -6.18714467e-02 -2.15358630e-01
  1.05533205e-01 -2.73985505e-01  5.16547918e-01 -5.47597885e-01
  1.16736785e-01  5.85597157e-01  2.45770812e+00 -9.30281043e-01
 -3.54586929e-01  2.48462185e-01 -5.42129695e-01 -8.96397978e-02
 -6.40822530e-01  2.25451011e-02  4.45429355e-01 -2.69324064e-01
 -1.95278853e-01  7.65914977e-01]","[ 0.04525886 -0.13214429 -0.04925426 -0.00842508  0.0086841  -0.05410254
 -0.31307864 -0.2466913  -0.01804551 -0.19533224 -0.13598266  0.01873131
 -0.01343143  0.00180941 -0.35792443  0.02220433 -0.0203192   0.13223612
 -0.0416242   0.07716401 -0.10032576  0.04935781  0.00781899  0.00473253
 -0.01487296 -0.12108716 -0.00309153 -0.10795242 -0.03970724  0.0189264 ]","[ 0.23396567  0.20220274  0.34242114 -0.22012974  0.02584468 -0.25788447
  0.01026905  0.09444561 -0.33466035  0.72881836 -0.28565538 -0.20499644
  0.46437424 -0.52031887 -0.24257442 -0.38625062 -0.04758032  0.33372903
  0.0508639  -0.03654166 -0.31268388 -0.96098655  0.02179387 -0.94023407
 -0.03056785 -0.5533295  -0.11208364 -0.3377459   0.09843407 -0.30807146]"
1,0.40612096,2.2138116,0.8373827,-0.6618397,-0.39919028,0.03954696,1.1181505,-0.021112822,1.3598893,0.01762484,-0.024825888,-2.4390516,-0.76254636,-0.9610984,-0.3288612,-0.08136688,1.5893533,0.34339437,-0.48498407,0.897104,-0.6409228,-0.12685175,-1.6557416,-2.4792218,-1.8596401,-0.55168515,1.4706525,-1.283857,1.8217521,-1.546732
