,0,1,2,3,4,5,6,7,8,9,10,11,12,13,14,15,16,17
0,"[-0.15116638  0.504238    0.18684977  0.3218345   0.12033256  0.06881155
 -0.07184598 -0.58957946  0.36509553  0.78377587]","[ 0.20487341  0.10580283  0.45131677  0.14229736  0.24213785  0.01998744
  0.11597273  0.02562957 -0.3500709  -0.19409081]","[ 0.29995897  0.7117574   0.21423852  0.7304048   0.5569682   0.48708922
 -0.5019744  -0.7123333   0.38404873  0.9245192 ]","[-0.16429876  0.34610915 -0.02368112  0.41378838  0.08808742 -0.00465248
  0.16540153  0.17605302 -0.36594364  0.37175623]","[ 0.6671855  -0.1674351   0.4177372   0.7119545   0.06591541  0.662471
 -0.65054065 -0.15773222  0.3725459   0.97308886]","[-0.43285885 -0.44102594 -0.41165176 -0.5528272  -0.46847615  0.05125397
  0.33967304 -0.1037872  -0.2006053  -0.476409  ]","[-0.05658829 -0.21167961  0.14065973  0.4565208   0.4082734   0.3168897
 -0.32472685  0.01488755 -0.28454342 -0.03764496]","[ 0.31171137 -0.00101677 -0.23977906 -0.42594346 -0.20831108 -0.4161749
  0.42600858 -0.17193812 -0.61205035  0.08647737]","[ 0.05676526  0.29188228  0.13941528  0.24844162  0.5257387   0.54283357
 -0.46498132 -0.5613407  -0.17128116  0.14102526]","[-0.5109785  -0.75020504  0.01084888 -0.25563726 -0.13839656 -0.37696114
 -0.18641685  0.34773856 -0.37058514 -0.64794785]","[ 0.47990528  0.44591054 -0.2274016  -0.05808877  0.14879651  0.37288553
  0.02964761 -0.42314044  0.60340214 -0.06331433]","[-0.0038088   0.45977163  0.2022402   0.03030056  0.3190199   0.37692273
 -0.38099948 -0.6755256   0.21713634  0.6294499 ]","[-0.53692013 -0.5699524   0.0008941  -0.4735031  -0.10960954  0.15755613
  0.32184258 -0.12286747 -0.35942537 -0.22877662]","[-0.31642088 -0.632694   -0.3746665  -0.47204658  0.00421393 -0.6788459
 -0.15033516 -0.05920168 -0.4218063  -0.6329219 ]","[-0.550356   -0.4365661  -0.28476447 -0.16765708 -0.57970774 -0.6909512
 -0.31833562  0.17288582 -0.13646217  0.02034574]","[-0.22341011 -0.32575467  0.03692537 -0.6875631  -0.7514716  -0.18396622
  0.31891122 -0.08206899 -0.4765851  -0.7611366 ]","[-0.531605   -0.11815775 -0.5195071  -0.14288542 -0.4141309  -0.4216007
 -0.23665828  0.17219223  0.01527317 -0.1961864 ]","[-0.7509457  -0.14080492  0.05188934 -0.27159876 -0.6388162  -0.00791001
  0.2880917   0.47377723 -0.5465485  -0.75339925]"
1,-0.012195876,-0.10097949,-0.11269523,-0.06574875,-0.13217671,-0.18574013,-0.06829168,-0.18532357,-0.089939274,0.0030989624,,,,,,,,
