,0,1,2,3,4,5,6,7,8,9,10,11,12,13,14,15,16,17,18,19,20,21,22,23,24,25,26,27
0,"[-0.9480379  -0.52047867  0.79741824 -0.60963994  0.26507384  0.4318297
  0.60906696  0.4699727   0.82024884  0.5092817   0.85485107  0.96883976
  1.1038193  -1.2703116   0.76268274 -1.4689159  -1.1760238  -1.0043443
  0.5190346   0.72890157]","[ 0.8210424   0.59100133 -0.12865923  0.5120303  -0.16221602 -0.20703542
 -0.6151306  -0.22006066 -0.61837155  0.2693903  -0.05480177 -0.69272316
 -2.0442836   1.6545987  -0.22573318  1.8264507   0.7591604   1.0528702
  0.07060134 -0.8176399 ]","[ 0.9080844   0.30250815  0.43765157  0.07004586  0.31759465  0.73800695
 -0.2300848   0.06995726 -0.39906487  0.8139998   1.6717048  -0.5184057
 -2.4422297   1.7422051   0.4350091   1.7737998   0.703959    1.0325058
  1.7072687  -0.71856374]","[ 1.4249368  1.5613691 -1.9733202  1.5124154 -1.9488208 -1.8346459
 -1.7848858 -1.9302865 -1.9367068 -2.1160195 -1.2543135 -1.73498
 -2.3666503  1.5957102 -1.7580695  1.5170976  1.5899991  1.4140209
 -1.5532061 -2.0125282]","[-0.82374805 -0.75409657  0.4162048  -0.5499159   0.35401002  0.5705858
  0.4029322   0.9967773   0.82407975  0.41933665  0.9763089   1.2842039
  1.5585204  -1.0934364   0.8988832  -1.5370188  -1.0180056  -1.325807
  0.73151815  0.8886659 ]","[-0.66127247 -0.6891925   0.7118221  -1.3849303   1.2078803   1.1667477
  1.061729    0.9180911   0.13126774  1.305496    1.2975683   0.1929128
  0.3523842  -0.21517041  0.6017762  -0.22425167 -0.65211594 -0.14799806
  1.7283429   0.68036574]","[ 0.34230232  0.5497038  -0.52136105  0.23494668 -0.49229324 -0.02064118
 -0.5296866  -0.62182283 -0.42824006  0.0881201   0.28196013 -0.5714085
 -1.8020886   1.276377   -0.56264067  1.5882086   0.7590761   1.0360197
 -0.33040687 -0.45088816]","[-0.55701405 -0.8009435   1.2556046  -1.1966729   1.0325706   1.4180453
  0.899574    0.8740754   0.5671006   1.6646851   1.5176115   0.63113
  0.9550159  -0.7699186   0.5153348  -0.8822453  -0.90432835 -0.8649417
  1.6578089   0.6418576 ]","[-0.455385   -0.8680546   0.50094825 -0.94891113  1.135512    0.5772701
  0.8384499   0.69356465  0.18273231  0.91524166  0.96301967  0.04659611
  0.37680465 -0.6884647  -0.00392399 -0.3074955  -0.838081   -0.05791244
  1.3626356   0.5242205 ]","[-1.0748854  -0.68003196  0.7441465  -0.63215756  0.7873215   0.42550603
  0.8744373   0.8991729   0.8017703   0.7883381   0.8479067   0.85403365
  1.0427129  -1.0762674   0.362361   -0.80022687 -0.9349606  -0.8994503
  0.90905714  1.2283826 ]","[ 1.238856    1.0372561  -0.8424382   1.1603866  -1.1094044  -0.49199718
 -1.3178637  -1.0334717  -0.8857472  -0.09091254  0.48584864 -0.91283464
 -1.7946827   1.8181188  -0.5940629   1.6946015   1.1557509   1.3568093
 -0.18054913 -1.4013393 ]","[ 1.6657438  1.4239755 -1.8503577  1.6138988 -1.6281537 -2.0341012
 -1.7087463 -1.6643612 -2.0051355 -1.837352  -1.7571434 -2.075305
 -3.1701145  1.8086082 -2.1310952  2.1809816  1.801083   1.8153875
 -1.7209513 -2.0201836]","[-0.2667769  -0.76143616  0.93915343 -1.3008296   0.92525107  0.77953595
  1.0706488   0.34752604  0.22972529  1.0728066   1.0817325   0.04431675
 -0.2775063  -0.22691464 -0.05383933  0.3176017  -0.59087396 -0.20357645
  1.1671547   0.18830486]","[-5.3587121e-01 -8.1879079e-01  1.0991043e+00 -1.4840446e+00
  1.4640598e+00  1.0603174e+00  7.0680964e-01  8.1442338e-01
  7.4765402e-01  1.3802669e+00  1.8269778e+00  1.7333936e-02
 -1.1347448e-02 -6.6550285e-01  4.6450940e-01 -1.4202411e-01
 -4.4675913e-01 -1.1220025e-03  1.8380288e+00  4.9444315e-01]","[ 1.2701308  1.5427847 -1.775312   1.5451348 -1.9859726 -1.9235134
 -2.0872254 -1.4026816 -1.8029357 -1.8185751 -1.3162805 -1.7148383
 -2.5942402  2.0800116 -1.7075112  1.5844603  1.6447606  1.13904
 -1.796273  -2.064575 ]","[ 0.57886285 -0.06348737 -0.20810272 -0.25556937 -0.14142333  0.29651752
 -0.4823604  -0.29840356  0.09537678  0.49652234  1.3141214  -0.02438869
 -2.1388693   1.4274876   0.1273814   1.7794256   0.46884716  0.50886977
  0.90582246 -0.44726697]","[-1.6889769 -2.2988114  1.9404995 -1.8476629  1.977772   1.6531361
  1.6919836  1.7180563  1.9470143  1.4090438  0.529653   1.966748
  1.4252101 -1.9787312  1.8408225 -1.6746606 -2.2757134 -1.8753718
  0.793762   2.115103 ]","[ 0.49867296  0.871405   -0.44703183  0.6882204  -0.5719813  -0.769276
 -0.77137184 -0.6832037  -0.8973658  -0.6699673  -0.02269057 -0.9312206
 -2.201596    1.3039329  -0.6179941   1.682002    0.7376321   1.1842059
 -0.35281253 -0.84404445]","[ 1.6050225   1.0355067  -0.8030019   1.012624   -0.5859714  -0.6471908
 -1.0123545  -1.0668758  -1.3190384  -0.2448886   0.29007143 -1.3668805
 -1.8722855   1.6999426  -1.0908613   1.9177182   1.081056    1.4779687
  0.46748844 -1.4792268 ]","[ 0.9678285   1.1760639  -1.0846652   0.74532735 -1.1531038  -0.3150422
 -0.947907   -1.0196291  -0.8613596   0.24913743  1.3131183  -0.9277864
 -2.7653027   1.6187533  -0.96869487  1.7061474   0.994317    1.2382717
  0.7035268  -1.6449691 ]","[-1.061774   -0.9762453   1.2845137  -1.0968158   1.0889984   0.9195343
  0.9357871   0.9254506   0.85433567  0.65889347  0.21363443  0.9618598
  0.68753564 -0.64894354  1.1591719  -0.5733744  -0.85141903 -0.69594085
  0.52115196  1.2894197 ]","[-1.0303308  -0.9732178   0.7450673  -0.7934221   0.7012165   0.87533003
  0.61718893  0.82581455  0.55013967  0.9536074   0.8748635   0.75141895
  0.8908098  -1.0720295   0.89778954 -1.0710558  -0.8062819  -0.86986226
  0.9297949   0.79998285]","[ 1.3664285   1.5953997  -1.4441267   1.3093739  -1.0442039  -1.2692665
 -1.1758372  -1.3513676  -1.4774119  -0.7589446  -0.40762606 -1.2418318
 -1.9875947   1.5835036  -1.6860615   1.4124879   1.1550684   1.0852977
 -0.1136931  -1.7529787 ]","[ 0.412351    0.66188854 -0.38637045  0.2761023  -0.4598694  -0.21212606
 -0.6119801  -0.8424554  -0.69396067 -0.16268067  0.48770428 -0.9379109
 -1.9874486   1.004553   -0.31087053  1.8631462   0.74650127  1.0255566
 -0.11309528 -0.572362  ]","[-1.0963508  -1.0550616   0.4897608  -0.39066815  0.62216103  0.15086336
  0.8263899   0.4351154   0.7251339   0.33119208  0.40454262  1.2373755
  1.5498335  -1.3384812   0.57124776 -1.5746963  -0.8710823  -1.52093
  0.49347967  1.1532371 ]","[-0.8923517  -0.4134155   1.7261813  -2.2059214   1.837051    1.1472641
  1.5475482   1.1445004   0.5259339   1.5488445   0.981907   -0.24139145
 -0.36861333  0.02781408  0.9823549   0.3890333  -1.0570102   0.3212448
  1.1443651   1.2903421 ]","[-1.4074599  -0.9907107   1.2090515  -1.6687644   1.4381312   1.2486929
  1.072787    1.020314    1.1248994   1.7176951   1.7506324   0.99701715
  0.7170083  -1.236291    0.87048435 -0.44584352 -1.0117148  -1.2125995
  1.7550777   0.58200663]","[-1.0586295  -1.1600766   0.6482501  -0.74849916  0.24914216  0.7590073
  0.7555258   0.49810034  1.1670055   0.9344529   1.2093743   1.3407924
  1.2588109  -1.0856687   0.8248177  -1.6329831  -0.98851097 -1.4646728
  0.943308    0.74139106]"
1,0.11564403,0.16549806,-0.16066979,0.020029288,-0.24439977,-0.32888442,-0.25557548,-0.28240162,-0.2317189,-0.28646892,-0.46195403,-0.4376566,-0.067108884,0.14200993,-0.3297455,0.22551686,0.14212435,0.21224876,-0.3408683,-0.16876118,,,,,,,,
