,0,1,2,3,4,5,6,7,8,9,10,11,12,13,14,15,16,17
0,"[-2.502371   -0.626507   -0.04801441 -1.333749    0.22701293 -0.6454859
 -1.4393429  -0.26070622 -0.79523194  0.97616166]","[ 0.23869067 -0.96025306 -0.43897328 -0.19207153 -0.95508665 -1.2958406
 -0.18998078 -0.84770334 -0.17263395 -0.40460333]","[-1.7538284   0.32639325 -0.08498649 -1.1158503   0.95600677  0.1516216
 -0.60517406  0.41081202 -1.169749    0.64722323]","[-1.8136301   0.6669599   0.53874    -1.018085    0.9160902   0.5177556
 -0.9135775   0.69379437 -0.8240484   1.4722389 ]","[-1.6801621   0.37083244  0.10719117 -0.4654001   1.1463985   0.14157504
 -0.50250113 -0.06421614 -1.1774373   0.5609961 ]","[-1.223362    0.54722154  0.4489764  -0.5888739   1.1963509   0.46441627
 -1.1802868   0.2359581  -0.57087946  0.8858121 ]","[ 0.0869871  -0.82195085 -0.46343204 -0.39571398 -0.69632685 -0.5096305
  0.08473334 -0.34443745  0.15830247 -0.30007058]","[ 1.0178047  -1.2814424  -1.0765456   0.6590413  -0.8654972  -1.3710004
 -0.06617025 -1.1076292  -0.1656537  -1.3351281 ]","[-0.4071802   0.2983642   0.26978666 -0.53422517  0.59203637 -0.00247389
 -1.0840242   0.1047267  -0.8769272   0.49388513]","[-2.0669858   0.43050954  0.404609   -0.7826717   1.3077055   0.7957003
 -0.75917363  0.09649923 -0.9338672   1.1659681 ]","[-0.62313586  0.39682758 -0.20552097 -0.8502004   1.038118    0.40787438
 -0.9190913   0.08918434 -0.6718383   0.43012854]","[ 0.7904042  -0.9885178  -1.0611318  -0.19865058 -0.91442144 -0.5613312
 -0.24799256 -0.61994576  0.2331322  -0.50288004]","[ 1.9838765  -1.5224397  -1.7160501   0.3060659  -2.1173775  -2.0570416
  0.5203671  -1.9312378   0.30415562 -2.8432941 ]","[-0.61194724  1.1234424   1.5754402  -0.34723684  0.6905955   1.5060316
 -0.00767821  1.8109694  -0.33389205  1.1599623 ]","[ 1.6701705  -1.049363   -1.1752859   0.17711103 -2.101681   -1.4330391
 -0.04757684 -1.471955    0.08727182 -2.2670565 ]","[-0.0567026  -0.7688617  -1.0479033  -0.24225046 -0.8963448  -0.49884754
  0.09795857 -1.0305474   0.09875475 -0.31969103]","[-0.52000195  0.4265243   0.10783429 -1.2348803   0.61323285  0.61787903
 -0.8061674   0.48935106 -1.2785931   0.6097815 ]","[ 2.1969533  -1.7989496  -1.6918819   0.59679466 -2.4374452  -1.5697969
  0.40541992 -1.5374624   0.43930703 -3.0600755 ]"
1,0.2644249,-0.42530194,-0.3742734,-0.043563213,-0.36999398,-0.51362693,-0.07571232,-0.51659405,-0.15123281,-0.44744575,,,,,,,,
