,0,1,2,3,4,5,6,7,8,9,10,11,12,13,14,15,16,17,18,19,20,21,22,23,24,25,26,27,28,29
0,"[ 1.046788   -1.4776399   0.10727613  0.06330971  1.5069575  -0.8675115
 -0.41326383 -0.17608333  0.0198728   0.66802484 -0.8088112  -0.22611618
 -0.35233116 -1.1711619   0.05439094 -0.19936427  1.7455026  -0.7206487
  1.3705496  -0.31854752  1.2180457   0.59327346 -1.0398779  -0.64792585
  1.269336    1.1306194   0.7289437   1.0708389 ]","[  0.47349873   1.8087461   -3.896321    -2.3062341    0.05348747
  -1.8272629    1.8638304    2.1535003   -2.7554688   -1.4337894
   0.514189   -12.089824    -2.219216    -2.1165714   -7.7067213
  -4.447744    -0.33569923  -8.934551    -7.697652    -3.9746058
   1.099599     1.8611794   -3.6278899   -2.6265292   -0.81794316
   2.7960088    2.321666    -0.30697995]","[-0.11198674  0.12386454 -1.3657537  -0.07558368 -0.54929703 -1.5743092
  1.5367297  -0.98396564 -2.072561   -2.2109098   0.8253123  -0.26196036
 -0.97242284 -1.0705458   0.8684673   0.50373435 -1.4464719   0.7718616
  0.5374935   0.7096825  -0.19242825 -0.8731512   0.47274095  1.362468
 -0.93339163 -4.6623554  -0.54823554 -0.74815273]","[-1.4830163   1.0357717  -0.55569494 -1.7596892  -0.75782037 -2.391689
 -3.1950536  -3.9621868  -2.229935   -1.8417524  -0.5661423   0.3797582
 -3.383127   -2.5151358  -0.94748163 -0.57689846 -1.2710946   0.38265187
 -0.906559   -2.5897453  -0.7455921  -4.6542406   0.6869417   3.0185647
  0.08000781  0.52013063 -1.4984523  -2.0252259 ]","[-1.1863426   2.805167    2.495567    0.68442416 -1.645356   -0.63252544
  2.3880117  -0.71843624 -1.327729   -1.3568078   3.3577917   0.5112933
 -1.1470742  -0.7285212   1.5281916   2.8640957  -3.9664593   1.4909139
  0.9530516   2.5430095  -2.8546898  -0.6163321   2.2293785   1.375188
 -1.1471472  -0.41516802  0.27888542 -1.2725861 ]","[-1.0079138  -1.2029413   0.00939849 -0.46685982 -0.9128188  -0.4387108
 -0.81914884 -0.97461015 -0.50201523 -0.60403574 -0.7416845  -0.4696426
 -0.742397   -0.84272975 -0.29922158 -0.44861567 -0.23270528 -0.68686056
 -0.17938344 -0.05260073 -0.22566095 -0.86003304 -0.2872012  -1.0147669
 -0.9274293   0.03170882 -0.49950132 -0.96946   ]","[-3.024745    5.791663    1.3528123   3.9441545  -1.7136008  -6.2036486
  9.812404   -1.8119081  -5.9647036  -3.098787    6.2334876   7.019675
 -4.775222   -4.935247    6.3979063   4.3397884  -2.550259    8.023034
  2.131476    6.811732   -2.7559278  -2.6689692   0.15468098  3.8238325
 -0.39421895 -5.6145053  -2.3779519  -0.81160223]","[-0.33583742 -0.91556835 -0.21436173 -0.33937088 -0.40368307 -0.37089723
 -0.6729418  -0.33193773 -0.762268   -0.72448444 -0.9026564  -0.6612575
 -0.68623585 -0.5365965  -0.15410416 -0.32861888 -0.09333573 -0.62015754
 -0.5835142  -0.7453938  -0.21977203 -0.6907726  -0.19525722 -0.81577986
 -0.4265261  -0.314092   -0.5977141  -0.7530526 ]","[-1.244758    0.6044342  -1.3885822  -3.4684212  -0.21561167 -0.88245535
  1.9542176  -2.673445   -0.82192165 -1.2354343   1.8416805  -0.3419658
 -1.494881   -0.6717586  -0.38277835  0.2464032  -0.35764152  1.4438665
  1.2358948   1.204814   -0.8591732  -2.4712992   1.7083515   1.6123132
 -0.68087363 -1.5191147  -0.9023451  -1.3052391 ]","[ 3.3340185  -0.7619598   1.1883264   1.2917567   1.6522708   1.9312507
 -2.4039748   0.75223774  1.5802215   1.8967671  -0.8695408  -0.22461109
  0.02663319  2.4507651  -0.462271    1.884608    4.223377    0.79762983
  0.3731837  -1.6691468  -3.6171517  -0.37692744 -0.28182065  0.14391263
  1.6837442  -1.7041849  -3.5997875   1.6397587 ]","[-0.16416082 -0.08671739 -0.15925087 -0.0596522  -0.07846925  0.04522027
  0.11262392 -0.10528716  0.19427839 -0.03342388 -0.20542566  0.28064007
 -0.04151529  0.13544579 -0.15640202 -0.28534108 -0.18596835 -0.19632523
  0.00556054 -0.08930623  0.17397387  0.2114696   0.07922124 -0.06158923
  0.07240877  0.10427098  0.03116548 -0.12810044]","[-2.6654797  -3.0496151  -1.4092542  -6.747536   -2.95872     1.5126536
  0.4761511   0.5296188   1.1509044   0.18766223 -3.1399455  -0.14116968
  1.3321885   1.6863562  -0.58045447 -1.889173   -2.2280202  -0.6268957
 -0.48348686 -2.358191   -2.8377197  -1.6417594  -4.168833    0.50410324
 -1.5545098   0.3513161  -1.1061131  -2.3219452 ]","[ 0.58002    -0.06698745 -1.2692777  -0.81648314  0.98207575  0.06093638
 -0.14755712  0.49571347  0.57252663  0.671895   -0.5256437   0.0976337
  0.41391146  0.38882607 -0.6449338  -1.0095332   0.40907565 -0.37019795
 -2.5892713  -1.5555942   1.2718996   1.2965059  -0.9819362  -0.35178038
  0.64864266 -0.46302065  0.7410238   1.3453695 ]","[ 1.3554442  -0.86452645 -0.8746129   0.4768818   1.6942257  -2.8736064
 -0.68241304 -2.9816465  -0.2919365   0.65677375  0.14470716  0.4175391
 -1.2067125  -3.4486876   1.003744   -1.1081697   1.3260291  -0.85705024
 -4.997091    0.33295304  1.270987   -0.6097053   0.07122862 -0.5448962
  1.569263    1.2305013  -0.6017308   1.504873  ]","[-1.2656341   0.3785141   0.20489028  0.21952371 -1.1615758  -1.3971006
 -0.07424187 -1.3625741  -1.0142515  -1.3104451  -0.09992126  0.09370974
 -0.51601565 -0.777063   -0.59790504 -0.03722424 -0.8924328  -0.15573241
 -0.02678564 -0.25331333 -1.0785254  -0.9306266   0.04133056  0.24676658
 -1.0803388  -0.87104887 -1.6072519  -0.76075965]","[-1.0423164  -0.7212761  -0.38887632 -0.24743232 -1.1437825  -0.7702601
 -0.6030787  -0.7281437  -0.6694585  -1.0743439  -0.5258299  -0.6975673
 -0.4948626  -1.0421662  -0.1796609  -0.49742523 -0.66353106 -0.57752895
  0.04476187 -0.37591884 -0.36614403 -0.6241541   0.08676365 -0.40181807
 -0.7310262  -0.42939422 -0.5827857  -1.1000719 ]","[-0.9799681  -0.02024243 -1.1597257  -1.6709332  -1.2775067  -4.2015543
  1.5484238  -3.6692815  -3.4560525  -3.2077856  -0.36823902  0.15545362
 -4.292244   -8.676596   -1.4379767  -0.01994098 -3.100383    1.0179857
  1.257164   -0.27514824 -3.456113   -2.759183   -0.4069167   1.8104655
 -1.6033548  -2.295282   -0.46604005 -1.4625276 ]","[-0.46588382 -3.9167655  -4.586558   -0.9964407  -2.3647773  -1.22825
  0.774379    0.29128772 -2.8493788  -2.514965    0.22248921 -2.1956892
 -1.820556   -1.8787258  -1.0167898  -5.719099   -4.107583   -5.058815
 -5.895898    0.05925712 -1.385534   -1.0882195   0.04731215 -6.308363
 -1.9879578   0.72466594 -0.897438   -2.9176362 ]","[-1.284963    0.42637932  0.79985005  1.5937154  -1.593474   -0.79861134
  0.36935437 -0.47673455 -0.6872028  -1.2655457   0.33947694  1.6100411
 -1.4419566  -1.1874933   2.0230787   0.7159208  -0.964762    1.1602821
  1.2918375   0.9376794  -1.8068058  -0.9479286   0.81264603  0.6930774
 -2.2826655  -0.8033693  -1.0470593  -1.691166  ]","[-2.088517   -0.20944396 -0.69756126 -1.6495452  -2.008774   -3.9971542
  1.6217073  -4.194571   -3.205839   -1.3559078  -0.9319548   5.373392
 -2.103421   -3.4666033   3.9122179   1.9867718  -1.5606629   4.883091
  1.9705601   1.0817983   0.37165055 -3.4571414  -2.4705024  -1.017545
  0.06697784  2.098931   -4.7922006  -1.8247736 ]","[-1.0194956   0.51572186  0.6801631   1.3667933  -0.85080457 -1.6896943
  1.073046   -0.83927375 -1.0490702  -0.80173135  0.66258967  2.5282123
 -1.5743054  -0.9712341   1.5326124   0.8212356   0.52589947  1.8131751
  0.95398736  0.9864163  -0.48012543 -1.2090925   0.88164014  1.7684975
 -0.7859166  -1.8946351  -1.2692771  -1.1488512 ]","[-1.2200826  -0.24345043  0.5664071  -0.06381507 -0.95337194 -1.0337427
 -0.8572609  -1.1755596  -1.0836793  -1.2691244   0.42847407 -0.21119209
 -0.27581877 -0.9304335   0.10980849  0.36245158 -0.48521578  0.02447487
  0.40208468  0.1188814  -0.3537067  -1.2919124   0.7112793  -0.26448777
 -1.1149557  -0.8122462  -1.4826308  -0.97268504]","[ 0.9465917  -0.61687714  1.5763094  -0.20841986  1.0356282   1.1333364
 -2.0011744   0.6283812   1.3676199   1.4205387   0.37310907 -0.04141987
  1.2371836   1.7703072   1.1463674   1.3945832  -0.0615606  -0.2720132
  1.5364579   2.4307714   1.2036438   0.9787201   1.0627794  -0.6501161
  1.1598227   1.0789152   1.5555086   1.4879762 ]","[  1.8431259   -2.0687273   -4.857768    -1.4041302    1.9365757
   1.9196283   -1.2242112   -0.57295847   2.0875206    2.2846987
  -1.4045982    0.09343898   1.603627     2.0305932   -1.8457999
  -4.7443876  -13.919871    -0.77997285  -3.6477604   -2.311269
  -1.3633999    0.19691792  -1.0993531   -0.9687546    2.1862996
  -1.1387808   -0.9134732    2.0214071 ]","[ 1.959039    0.9451285   0.19601926 -0.51791686  2.2743413   1.6190518
  0.26837412  0.26655817  1.8873508   2.060449   -0.28993234 -2.6495552
  1.6603414   1.6232456  -1.4364378  -0.09373285  0.7463729  -2.394239
 -0.8584026  -0.8689992   0.38431728  1.3434966  -1.3911772  -1.912821
  2.2906604  -3.8397894  -0.37262788  2.2036252 ]","[ 2.9664040e-01 -9.2123318e-01 -9.7896230e-01 -1.2606547e+00
 -4.1319403e-01  3.2845998e-01 -1.8431365e+00 -3.8264021e-02
 -2.2876132e-01 -9.3187643e-03 -2.2508309e+00 -1.1200826e+00
 -1.3886589e-03  6.2845978e-03 -1.8539560e+00 -8.7203932e-01
 -3.2606101e-01 -1.0341876e+00 -1.2164448e+00 -1.4354533e+00
 -1.5358339e-01 -9.4012946e-02 -2.0001295e+00 -1.0049554e+00
 -3.3954453e-01  3.9845374e-01 -9.9113598e-02 -2.5661826e-01]","[ 2.2857292  -1.481026   -2.0526702  -2.678541    2.2039618   1.8905379
 -0.7476374   2.7352557   1.7247559   1.7160182  -1.4927065   0.45519793
  1.6719921   1.6563736  -0.91492325 -0.5497865   1.228722    0.19355102
 -1.6247032  -1.5944546   1.3866088   2.3352652  -2.6600835  -0.74098855
  1.9460956   0.22753315  2.0909514   2.1832535 ]","[-0.10892237 -0.5114855  -1.5195976  -2.2182677  -0.21249478  0.22977184
 -1.1874846   0.95256394  0.44976628  0.34968323 -0.95270383 -3.7998533
  0.6939123   0.56172734 -3.081019   -1.6056292   0.09585805 -1.6755942
 -1.5812763  -1.32534     0.29927954  0.5900513  -1.4443687  -1.4779272
  0.0317799  -0.3482212   0.72095025  0.05364687]","[-0.67699754  2.503619    1.8166826  -0.889323   -0.4376386   0.9132866
  1.9641135  -5.071277    0.7066498   0.508066    2.912451   -0.02231915
  0.11329497  0.99836665 -0.558562    2.3169324  -0.8894382   0.9630036
 -0.10887622  2.2266777  -0.959227   -6.524127    2.3993921   1.5232631
 -0.39939183 -1.8850309  -5.623468   -0.7093662 ]","[-0.91442734  1.643043    3.4522018   5.6605034  -1.2757801  -0.3121888
 -2.7557583  -0.7855511  -2.2630088  -2.6556926   0.3722426   4.6171713
 -3.0067174  -1.1089655   4.393168    3.87675     1.5330256  -0.9974664
  2.613878    2.1929834   0.7045631  -1.8868666   0.29247203 -0.89003474
 -1.5250882   1.956689    0.20104408 -2.990083  ]"
1,-0.6635204,-0.8122325,-0.24805357,-0.02924293,-0.7370345,-0.67634976,-0.68312967,-0.5777445,-0.7114072,-0.6861682,-0.5271503,-0.5343123,-0.5083633,-0.62123275,-0.36012286,-0.48029727,-0.43425214,-0.67812884,-0.17846873,-0.3151684,-0.35911047,-0.61737186,-0.094846435,-0.56483275,-0.6309731,-0.27294487,-0.6203336,-0.7020933,,
