,0,1,2,3,4,5,6,7,8,9,10,11,12,13,14,15,16,17,18,19,20,21,22,23,24,25,26,27,28,29
0,"[ 0.38730904 -0.08517207 -0.74985737  0.32816488 -0.74909127  0.1747673
 -0.65548277  0.36201954  0.3323498   0.39919153 -0.4929971   0.33191675
 -0.7431525  -0.5427906  -0.40568936 -0.6419631  -0.57242954  0.3468076
 -0.50779283  0.39142743 -0.51211554  0.26419464  0.15185495 -0.5249271
 -0.68358743 -0.31509742  0.6707208  -0.39716974]","[ 0.80038494  0.9343817  -0.85473853  1.2436577  -0.7835182   0.7634606
 -1.2685322   0.9515594   0.987909    1.3364381  -1.0975239   1.2351954
 -0.9454555  -0.79086655 -1.0011884  -0.9103192  -1.1262505   0.7424775
 -1.1693671   0.8492253  -1.2176849   0.9368762   0.7093385  -0.8080774
 -0.836574   -0.9497908   1.3480487  -1.310032  ]","[-0.00651952 -0.13135275  0.08871331  0.2268007  -0.0149464   0.28333527
 -0.07403957  0.3415442  -0.09642848 -0.25717077 -0.0459162   0.22116844
  0.00889542 -0.04366718 -0.04855287 -0.31562078 -0.13107753  0.06853414
 -0.47877136 -0.0647333  -0.13871175  0.13843465 -0.20962729 -0.09961232
 -0.16741435 -0.45123756  0.23689848  0.08549448]","[-0.12789844 -0.19961773 -0.11415257  0.4729036   0.02175222  0.251866
 -0.24785262 -0.13860393 -0.19192591 -0.03092038  0.19913797 -0.03041714
 -0.02218495 -0.35214302 -0.15416563 -0.01626261 -0.16977215 -0.01254612
  0.10353298 -0.08691161 -0.00693292  0.26547578  0.31891245  0.08972824
 -0.14513275 -0.36983678  0.00479505  0.16027544]","[-0.4626571  -0.02960856  0.18936235 -0.18230191  0.12117438 -0.43167722
  0.13663875 -0.26533434 -0.49945506 -0.02033364  0.37010178 -0.3149991
  0.38280106  0.10731108  0.32432     0.1975571   0.45435986 -0.32070458
  0.19711754 -0.17156151  0.34109053 -0.24662922 -0.34957957  0.24137188
  0.15752803  0.43633708 -0.22589086  0.4594612 ]","[-0.38378704  0.36254114 -0.02588039 -0.46711373  0.2755131   0.06776557
 -0.08209254 -0.22664246 -0.09041671 -0.10265132 -0.14460441 -0.35310856
  0.3267704  -0.08126313  0.24223326 -0.10822113  0.20682244 -0.3756026
  0.21320876 -0.31282094 -0.05527659 -0.22336374  0.11844998  0.20929368
  0.26208508  0.4759832   0.04067331  0.12313923]","[-0.36763594 -0.28833556  0.1068081  -0.3639092   0.43301663 -0.03758738
  0.14502141 -0.5018107  -0.11457946 -0.08880925  0.25508302 -0.36594957
  0.30646607  0.3408183   0.41477308  0.02461709  0.41560447 -0.5872276
  0.46866104 -0.39255202  0.21957253 -0.08412407 -0.08757578  0.32428476
 -0.0374832   0.2479095  -0.53098595 -0.14955142]","[-0.78822905 -0.2736914   0.6310737  -0.72203875  0.22337773 -0.4547507
  0.7683137  -1.0042048  -0.7357385  -0.662613    0.90284395 -0.5042337
  0.40738428  0.40258402  0.6118577   0.7983947   0.27161422 -0.88380504
  0.6470185  -0.9532599   0.6138693  -0.6191372  -0.40536383  0.7973736
  0.80235577  0.52511597 -0.8636062   0.58510995]","[-0.3302318  -0.03887756 -0.18225463  0.06954534  0.01296416  0.12272284
 -0.08900043 -0.09339482 -0.30592588 -0.20376371  0.02607068 -0.1719131
  0.05487761 -0.20658383  0.20278576  0.114665    0.22709306 -0.32409975
 -0.155664    0.19600645  0.33727404  0.22024798 -0.26132956 -0.09275458
  0.00950912  0.26536545  0.0474999  -0.17451751]","[-0.17453672  0.00699975 -0.07621171  0.01756998 -0.40171623  0.17406227
 -0.44885373  0.08127452 -0.00249068 -0.31822172 -0.18245845 -0.29385215
 -0.4523786  -0.26652798 -0.23155974 -0.3965339   0.02213704  0.07601056
 -0.4138595  -0.22880028 -0.43456143  0.3139965   0.17331797  0.13492776
  0.14143847 -0.06434014  0.18115129 -0.17425121]","[-0.27745637 -0.13855958  0.4923172  -0.01341164  0.196566   -0.442866
  0.16207047 -0.51356703 -0.41637734 -0.64983505  0.10862382 -0.49579397
  0.10800366  0.09039661  0.13013127  0.6431673   0.433246   -0.33948094
  0.20400804 -0.24939506  0.35054475 -0.1999168  -0.5378579   0.32286528
  0.5203949   0.40298092 -0.32394806  0.34441912]","[ 0.07177259 -0.13070026 -0.4584257  -0.04459509 -0.03424703  0.01131119
 -0.13804048  0.06772639  0.00188323  0.25729546 -0.0968636   0.19445266
 -0.36576483 -0.05659566 -0.2285219  -0.22322854 -0.15780368  0.23255707
 -0.1397604  -0.20965733  0.01388931 -0.20606965  0.02297992 -0.30691028
 -0.345697   -0.01253249 -0.17135465 -0.28369394]","[-0.14290085  0.31156257  0.19677085 -0.1167791  -0.28026113  0.08665027
  0.23436423 -0.01949666  0.29773098 -0.01843277  0.09899258  0.13484634
 -0.11730049  0.13896643 -0.32968947  0.18512157  0.09291247  0.15630235
 -0.0545837   0.1188411  -0.3076986  -0.12490693  0.1026753  -0.30960453
  0.27392852 -0.14706235 -0.15495975  0.20323303]","[ 0.2072838  -0.15204114 -0.03981902  0.00707181  0.08202925 -0.13277303
 -0.00218845 -0.24034433  0.17685822  0.17661582  0.20552126 -0.07760847
 -0.2456388   0.27803552  0.13200274  0.04685468 -0.0045633  -0.27025527
 -0.00519343  0.05545034  0.07933318 -0.18095142  0.00732782 -0.18966402
 -0.30422458  0.05782139 -0.17604648  0.00116905]","[ 0.28307533  0.1990084  -0.4214312   0.04016015 -0.12629753  0.21823338
  0.0531908   0.26781425 -0.03598125 -0.06461184 -0.17515069  0.02300845
  0.07405405 -0.22485669 -0.45214486  0.14933172 -0.08865676  0.21591976
 -0.03141046  0.14436264 -0.02542182  0.35126275  0.13048625 -0.15579125
  0.18318999 -0.43765193  0.1354644  -0.28522718]","[-0.0517545  -0.19359906  0.16024417 -0.3403939  -0.07002915 -0.29178286
  0.03338142  0.11876535 -0.01929445 -0.38369897  0.04486745 -0.25902474
  0.33555225  0.36392978  0.2920728   0.49040765  0.02989387 -0.4760415
  0.28194058 -0.36592218  0.37701568 -0.3368805  -0.3613534   0.01350308
  0.02966314  0.22336249 -0.17022678  0.07215056]","[-0.3002883  -0.271528   -0.07139403 -0.17191342  0.11348784  0.08589675
  0.07626697 -0.21722351  0.25714493 -0.21868639 -0.00460987 -0.06974693
 -0.37675163  0.1670564   0.23486982  0.23783775  0.01691096  0.18263817
 -0.04494898  0.18057656  0.08284119 -0.1151621  -0.221549    0.24413909
 -0.10083932 -0.11295354 -0.21852595  0.13912812]","[ 0.57866025  0.5807283  -0.9246892   0.9650251  -0.56391     0.6940746
 -0.42713436  0.80918014  0.8260841   0.7199462  -1.0683236   0.7324146
 -0.72462475 -0.8702095  -0.5403905  -1.0430205  -0.87185675  0.6446974
 -0.840926    0.69879615 -1.0133197   1.0090483   0.03313147 -0.6151667
 -0.931452   -0.8912682   0.4979614  -0.55617386]","[-0.24904853  0.27388737  0.04015253  0.00301872 -0.40166682 -0.15309659
  0.10634982 -0.23912117 -0.12761697  0.20489235 -0.04158026  0.19677882
 -0.33258408 -0.39904436 -0.49336487 -0.17214608 -0.41346762  0.02338707
 -0.19429623 -0.09617321 -0.28190652 -0.2490472   0.16542871 -0.01903151
 -0.3602399  -0.22171095  0.17921549 -0.39007634]","[ 0.12095798  0.302863    0.20204724  0.22502668 -0.2622169  -0.23549904
  0.16455062 -0.13917024 -0.27559176  0.01652868 -0.13217112  0.13306278
  0.1555831   0.0726236  -0.10537208  0.15916057  0.18521515  0.27884844
 -0.31000686 -0.14528416 -0.23611452 -0.19086389 -0.16187958 -0.0133374
  0.18197836  0.3084041   0.2993237   0.30031252]","[ 0.19913971 -0.20374599 -0.0265565  -0.03195375 -0.07415943 -0.30920088
  0.14063908  0.1596401   0.20091492  0.2710639  -0.22813107  0.18406604
 -0.33024418 -0.07587078 -0.29649422 -0.39179578 -0.30493227  0.12537421
 -0.04282999 -0.24734457  0.02432941 -0.04331738  0.13563338 -0.4067045
 -0.13884072 -0.29331776 -0.00884577 -0.15470599]","[ 0.5269131   0.5606804  -0.7793285   0.8119859  -0.4204222   0.77363837
 -0.9186134   0.7317494   0.8781746   0.15492435 -0.68303084  0.31850365
 -0.49926648 -0.6063386  -0.9765381  -0.71043956 -0.56657195  0.63732326
 -0.7374437   0.37179172 -0.7906011   0.5741245   0.42600566 -0.6464728
 -0.5716864  -0.77890027  0.5580508  -0.69658   ]","[-0.5642558  -0.5977327   0.22951847 -0.36737353  0.26994398 -0.19299541
  0.31499413 -0.57755286 -0.5581811  -0.56952375 -0.10176617 -0.4612063
  0.2262245   0.05393454  0.3425764  -0.01633336  0.22168496 -0.6272721
  0.12079757 -0.68744093 -0.04384548 -0.08328433 -0.5619678  -0.06131301
  0.4297284   0.14375211 -0.21600896  0.29560786]","[-0.02115389  0.12860735 -0.02743853  0.1118743   0.00176906  0.15345716
 -0.4671866  -0.02562031  0.31835535  0.11448354 -0.26597092 -0.1298704
 -0.03865928 -0.01868413 -0.22527428 -0.151719   -0.05562816  0.12328474
 -0.17988683  0.37451866 -0.22586402  0.1878154  -0.12354198 -0.20052128
 -0.02275291 -0.36591718  0.02307245 -0.14321403]","[-0.37370273 -0.1545659   0.6277806  -0.71121603  0.6210135  -0.40294772
  0.35569304 -0.5619245  -0.46298692 -0.3841661   0.47646004 -0.34304684
  0.45361885  0.47907504  0.4170562   0.4069988   0.6129779  -0.80642724
  0.40816063 -0.5497571   0.49731675 -0.45130238  0.03434419  0.45377934
  0.15673797  0.522748   -0.5795862   0.19396028]","[ 0.21992768 -0.29323727 -0.36152568  0.04213558 -0.3541797   0.00758211
 -0.05092367 -0.20422249  0.2539674   0.2595885  -0.51385915 -0.08328485
 -0.12979811 -0.02075835 -0.06207727 -0.31050643 -0.407488   -0.23017564
 -0.13092533  0.11076577 -0.46682698 -0.07253769 -0.07295141 -0.13605353
 -0.29599297 -0.14309266  0.30184385 -0.06713317]","[ 0.19181484 -0.22666995 -0.3083934   0.19279914 -0.08611867  0.07766484
 -0.5110713   0.3577677  -0.18930654 -0.2734691  -0.05005037 -0.05983377
  0.09079965 -0.0941242   0.10755217 -0.0807416  -0.32158244  0.29835337
 -0.28368956  0.35780358 -0.40133518 -0.20107394 -0.11241276 -0.37276322
 -0.2648413   0.11256459 -0.25883582 -0.0974538 ]","[-0.20522647  0.20014024 -0.34384146  0.471715   -0.04129811  0.32512167
 -0.17878552  0.3980996  -0.06237199  0.55928785 -0.53157395 -0.05091593
 -0.3291432  -0.10462368 -0.10177806 -0.07726386 -0.3277189  -0.0731677
 -0.24684252  0.11098279 -0.05655654  0.32351494  0.4128667  -0.31883797
 -0.14138415 -0.35694668  0.24127585 -0.60898805]","[ 0.33546457  0.49931732 -0.8962695   0.6512426  -0.8254979   0.56411695
 -0.86966026  0.46326545  0.72572255  0.6106236  -0.6086342   0.5262775
 -0.52682817 -0.507607   -1.0478258  -0.90503955 -1.0220453   0.2983198
 -0.8612464   0.4573793  -0.7662468   0.74646074  0.02817855 -0.79447836
 -0.95836526 -0.7633016   0.711637   -0.7699941 ]","[-0.25620732  0.25327227  0.01631203 -0.24133807  0.06600829  0.27988794
 -0.09018436  0.15617009 -0.01268046  0.2523332   0.29468334 -0.10300054
  0.28789854 -0.21956581 -0.25895673  0.18793154 -0.08639395 -0.21968511
 -0.10651101 -0.2096746  -0.29469866  0.27175054  0.09979446 -0.31377855
  0.01757454  0.12259415  0.08051525  0.14718549]"
1,0.058919996,-0.026934585,-0.2188398,-0.023863493,-0.177116,0.0024840855,-0.19716717,0.037579194,0.08631636,-0.0077022472,-0.33210513,0.011714018,-0.21188214,-0.22389345,-0.17540593,-0.108078785,-0.22783223,0.016108682,-0.16052835,0.079891935,-0.18510129,0.069258876,-0.032210536,-0.10845116,-0.115102895,-0.20748791,0.011414867,-0.12494368,,
