,0,1,2,3,4,5,6,7,8,9,10,11,12,13,14,15,16,17,18,19,20,21,22,23,24,25,26,27,28,29
0,"[-0.0964213   0.11243173  0.15618765 -0.20525527  0.08794317 -0.03155372
  0.01853993  0.01539824  0.06205039  0.30207843  0.05987853  0.16661015
  0.0070186  -0.10654546 -0.14853053  0.05138156 -0.27734277 -0.03433824
  0.2402996  -0.21212724 -0.10967708  0.13000757 -0.01738379  0.21893206
 -0.12698853 -0.1508584  -0.0078014   0.02864845  0.05367536 -0.0497184 ]","[-0.00812601  0.3091166   0.26175112 -0.07792675  0.66933054  0.291059
  0.07690793  0.0224182   0.04473354  0.17929848 -0.12243241  0.05181364
 -0.13270585 -0.16973951  0.3801443  -0.13780878  0.42195058 -0.31229687
  0.2595239  -0.23503809 -0.1180393  -0.94769335 -0.26146626  0.14879756
  0.28681192 -0.12604833  0.04797575  0.40924197 -0.96030885  0.10705855]","[ 0.15716875 -0.05127799  0.22620252 -0.2036197  -0.05998633 -0.04968568
  0.13053754 -0.09235483  0.19386353  0.3756515   0.3283185   0.13216913
 -0.04849634 -0.19747062  0.21846084  0.08434373  0.0174571  -0.04989393
  0.20547011 -0.2824878   0.04195218  0.01689887 -0.21589898  0.31556147
 -0.12988453  0.3411015   0.31037146 -0.15468036 -0.15069866 -0.1796728 ]","[-0.14475991  0.02718835  0.33101287  0.19050407  0.04609559 -0.06895892
 -0.28421268  0.02120131 -0.00168881  0.18610011 -0.00530136  0.2119682
 -0.22192478 -0.1485166   0.2236914   0.13636824 -0.26228878  0.10540798
  0.34541816 -0.30968353  0.26009288 -0.15953471  0.18944085  0.30576172
 -0.0190872   0.17815493  0.1843617  -0.14780784 -0.00831216 -0.260465  ]","[ 0.22082756  0.094354   -0.2324036   0.24586676  0.0892138  -0.26606414
  0.0758741  -0.12243003 -0.30691782  0.19529174 -0.2321324   0.18822323
  0.156848   -0.20733266 -0.01298895 -0.14591415  0.27916014  0.04404812
  0.10348126  0.06509224  0.01143047 -0.21350038 -0.32066056  0.04063506
 -0.00491231  0.33874536  0.11877292  0.1319718   0.2784319  -0.272883  ]","[-0.26927546  0.01975176  0.2167913  -0.2879452   0.01938548 -0.1368487
 -0.04277079  0.1470074  -0.28308904 -0.22516967 -0.1424499  -0.03446024
 -0.3043871   0.26309785  0.23095502 -0.08744454  0.24236676 -0.04690772
 -0.14794903  0.01903798  0.10829598  0.22025485  0.24096069  0.26595262
  0.10284901 -0.2659864  -0.13233419 -0.08837432 -0.11920632 -0.08197348]","[-0.2409505  -0.00243188  0.11289094 -0.23629217 -0.01287017 -0.2872109
  0.18786633 -0.1651414  -0.22748935  0.22898845 -0.32346165  0.04211299
  0.28267783  0.28416762 -0.10791453 -0.12322074  0.09740712 -0.28171065
  0.09384543 -0.26576987 -0.07883777  0.11181554  0.07083378  0.10917427
 -0.18618646 -0.22634079  0.1962763  -0.14788635  0.02824151 -0.26322317]","[-0.384692   -0.12527153 -0.00341424  0.07893407  0.02504873  0.39745882
  0.29467422  0.1058787   0.15539217 -0.23424204 -0.08151539 -0.24462254
  0.10741291  0.20801286 -0.05095071  0.33171016 -0.11701404  0.01365046
 -0.218408   -0.2517761  -0.19050662  0.07934463  0.31126967  0.049951
  0.05728263  0.2786859  -0.1762062   0.35689053  0.12924273 -0.20031072]","[-0.00451319  0.08675322  0.08691149  0.23592618 -0.41699862 -0.48865813
 -0.01690143  0.01177369 -0.40698478  0.0894907  -0.09124456  0.13945706
 -0.03345366  0.2577057   0.15166362 -0.09247155 -0.13783738  0.31768999
  0.08582561 -0.03827195  0.2809883  -0.07052068 -0.23061773 -0.05134275
 -0.08634013 -0.3106512   0.10292047 -0.31022906  0.41715887 -0.17516649]","[-0.59846866 -0.64476186 -0.11090801 -0.061863    0.29659882  0.12358018
  0.7334953   0.8434183   0.16173021 -0.11382423  0.510989   -0.01122193
  0.20876189 -0.16280605 -0.18872453  0.8610461   0.23618333 -0.04614194
  0.16578515 -0.15234977  0.25480828  0.3105294   0.69619083  0.26739693
  0.39916718  0.26205122  0.06011257  0.42173147  0.08963929  0.05540546]","[-0.22022623 -0.7375214  -0.2723736   0.13415998  0.34035847 -0.25900778
  0.3746308   0.5125467  -0.10954713  0.23498523  0.05811591  0.11634385
  0.07959065  0.16406323 -0.08533168  0.14355266  0.32567972  0.3472733
  0.19574353  0.23197503 -0.14102122 -0.41507545  0.44237232  0.09433607
 -0.04691426 -0.20227636 -0.17518884  0.16688824  0.27514547 -0.17766267]","[-1.1396089  -1.1761984  -0.26497257  0.11473053  0.766164    0.47004268
  0.9906415   1.5156423   0.3444225  -0.06499288  0.23401842 -0.22322963
 -0.21570031 -0.0612137   0.1358962   1.0318717   0.42644587  0.06830861
  0.18840405  0.2636712  -0.24594371 -0.11595464  1.335952   -0.30016267
  0.5060332   0.018171    0.29126212  0.34326136  0.03032553 -0.1915456 ]","[-1.0388757  -1.4236693   0.22491905 -0.17610462  0.66847914  0.05494993
  0.89473605  0.7624283  -0.02344374 -0.18091494  0.14493206 -0.07076818
 -0.13218862  0.10736338  0.00886828  0.68972266  0.42146018 -0.32155612
 -0.01105609  0.29503867 -0.01960091 -0.37486398  0.83097434  0.31234863
  0.543569    0.08366359  0.2962401  -0.16395731 -0.37759194  0.02655763]","[ 1.3805205   1.0636599  -0.22902118 -0.06791671 -0.8599875  -0.61918086
 -1.394652   -0.8545637  -0.52233607  0.24068463 -1.1230565   0.24471876
  0.2214084  -0.27001384 -0.23609729 -1.334787   -0.17789942  0.5682527
  0.10802022  0.23675558  0.09699912  0.28747576 -1.2564592  -0.23918611
 -0.33595607 -0.10606746 -0.04161873 -0.23304984  0.20110436 -0.00657577]","[-0.12355482  0.34237328  0.06157794  0.18509987 -0.09662557 -0.19923002
 -0.06352586 -0.37826756  0.1447029   0.2338026   0.2532649   0.18492928
  0.04787429 -0.2728814  -0.27187398 -0.21150427 -0.37144858  0.0991624
 -0.06021677 -0.05589176  0.23173103 -0.04422269  0.11354829  0.29893517
  0.00086672 -0.03123625 -0.06565826 -0.04937726  0.0758014  -0.10249768]","[-1.3890562  -1.6414121  -0.12516043 -0.10302095  0.7864529   0.28162378
  1.5207826   1.0805925   0.33928734 -0.17130426  0.52655953  0.2057241
  0.07487625  0.3078459  -0.12454795  1.6056178   0.5834742  -0.22497587
  0.22911464 -0.02640346 -0.23230444 -0.6766143   1.5375208   0.08648032
  0.91997594 -0.06831651 -0.06945415  0.29888594 -0.24774891  0.09839818]","[-0.62768835 -0.20352197  0.287506   -0.30289677  0.39015636 -0.5312085
  0.4274538   0.26397303 -0.27612987 -0.15663886 -0.34843388  0.11334188
 -0.09476362  0.1955606  -0.13793464 -0.29769272  0.38798493  0.4041011
 -0.11417897  0.2994476  -0.13551833 -0.5156485  -0.06038848 -0.23180965
  0.090019   -0.17970125  0.1455096  -0.5471037  -0.327651   -0.24803936]","[ 0.19770044 -0.21859716 -0.05176291  0.22553883  0.21705681 -0.13158107
  0.51458526  0.14182815 -0.10213599  0.30714285  0.05278504  0.05384023
 -0.17501493 -0.23125218 -0.2970432  -0.30116114  0.34068277 -0.24991858
 -0.27221492 -0.18363893 -0.14401919  0.00759151  0.43347117  0.20617792
  0.3783594   0.2767304   0.24237666 -0.06770383 -0.3828833  -0.0031946 ]","[-2.01548234e-01 -9.31142807e-01  4.64658393e-03 -8.08744654e-02
  1.44796342e-01  1.06388055e-01  2.63218582e-01  2.07471371e-01
 -1.98039323e-01 -2.73601681e-01 -2.86049932e-01  2.87527174e-01
  2.59079728e-02 -5.11921830e-02  1.30641416e-01  2.07672417e-01
 -7.35812604e-01  4.27262723e-01  7.59176984e-02 -2.03793079e-01
 -2.62055844e-01  5.99127531e-01  5.26716352e-01 -1.19569421e-01
 -4.24144000e-01 -2.37458214e-01 -2.18760237e-04  8.41772258e-02
  7.29999542e-01 -3.31315100e-02]","[ 0.02933658 -0.21876718  0.01970858 -0.22277123  0.07257085  0.04745451
 -0.02046921  0.37829304 -0.48465788  0.09380649 -0.53693676 -0.20519726
 -0.26908296  0.08081335 -0.01726825 -0.37540293 -0.13811193  0.16232531
  0.29147103  0.02282379 -0.18665093  0.00372243 -0.17091091  0.2756118
 -0.45113695 -0.17942394 -0.28239405 -0.33378878 -0.13607512 -0.11129936]","[-0.2769605   0.5706191   0.12081249  0.2130427   0.26994357 -0.11880193
 -0.0200171   0.29207435 -0.34166557  0.16468933 -0.14519668 -0.02056226
 -0.13192183 -0.30377924 -0.00668169 -0.30355465 -0.12280488 -0.1115177
  0.25672212  0.17213671 -0.14389467  0.08574443  0.08509535  0.18951228
 -0.53974634 -0.26296568 -0.12733604  0.18821484 -0.05036388 -0.23166126]","[ 1.0754354  -1.4842606  -0.21276417 -0.05737999 -0.8911755  -0.0317807
  0.15810487 -1.9958615   0.40024883 -0.15010138 -0.69383615 -0.03076135
  0.04756497 -0.00381399 -0.10186388  0.5761553   1.2805362   1.0874434
 -0.15872687  0.15208362 -0.10193184 -0.14685178 -0.9989636  -0.03070511
  1.844482    0.30893332 -0.3041342   0.08133095 -0.7100054  -0.2508623 ]","[ 0.38914925 -0.10843478 -0.284806    0.10746     0.14439122 -0.30057126
 -0.2146711   0.19388962  0.04222035  0.17511168 -0.6164519  -0.14635237
  0.03046473 -0.22802754 -0.0068391  -0.5130165  -0.00913297 -0.04947754
  0.15674317 -0.29618698 -0.15411662  0.00777313 -0.520786   -0.09150747
  0.01267089  0.15833522 -0.22435574 -0.3015189  -0.2284514  -0.25504592]","[-0.1962847   0.39545065 -0.1697253  -0.14785177 -0.17697757 -0.11751495
 -0.21753205 -0.04038215  0.15845825  0.336902    0.10209619 -0.21122406
  0.29060322 -0.29184732 -0.1301796  -0.1174519  -0.30478543 -0.46840158
 -0.02840721 -0.130902    0.08713549 -0.02947829  0.05067322  0.1964257
 -0.2556827   0.10586091  0.13429223 -0.06466088 -0.04173586  0.01573753]","[-0.22337382  0.42157376  0.06935968  0.05449962  0.07015302 -0.13755889
  0.35516012  0.24934292 -0.26123562  0.16804154  0.07184296 -0.07712122
 -0.24075063 -0.13884868 -0.21988887  0.02072189 -0.20126638 -0.4776801
  0.17735495  0.300808    0.11497463  0.19889706  0.03293661 -0.14525877
 -0.22639553  0.01776332 -0.11837789  0.33610848  0.23690557 -0.07904612]","[ 0.29435262 -0.06449916  0.33695212 -0.28313598 -0.14417212  0.08275589
 -0.00365474 -0.16155353 -0.24989285 -0.12200709 -0.03903925  0.01880218
  0.17931144 -0.06410521  0.10703077 -0.03133535  0.21541381 -0.03789715
  0.05423777 -0.06793714  0.10691201  0.06437886  0.2456811  -0.16150299
  0.2130504  -0.07881705  0.2867019  -0.04765245  0.03782386  0.2086484 ]","[ 0.19068031 -0.2073424  -0.20491856  0.19378108 -0.17184263 -0.18377303
  0.00292139 -0.38310164 -0.2252017   0.17873302  0.11518182 -0.04322771
  0.16459106  0.05785174 -0.2647327   0.0319978  -0.09900971  0.01969304
 -0.09157337 -0.28894562  0.12587401  0.00515369  0.13811395  0.08403099
  0.48579702 -0.0480141  -0.19075428  0.09418859  0.0678204   0.18703091]","[ 0.04750802 -0.37881032 -0.06119002  0.00400764 -0.2099863   0.04419832
 -0.12441025 -0.24669413 -0.01658376 -0.19550528  0.19450441  0.3277042
 -0.12593696 -0.2407101   0.25188988 -0.08406089  0.07324444 -0.0346773
 -0.2731126   0.11217491  0.05775265  0.3594132   0.14349419 -0.2168423
  0.12287808  0.11742513  0.19823085  0.20279577  0.0673585  -0.13381864]","[ 0.01732528 -0.04452421  0.09616979 -0.12798774  0.09077875  0.0044241
 -0.0163282   0.04794112  0.10069241  0.18301776 -0.0915335   0.09127243
 -0.23308498 -0.28321368  0.06612493  0.01558245 -0.33251575 -0.24044782
  0.07621911 -0.0014511   0.23987567  0.05350331 -0.08357461  0.28769344
  0.02634799  0.2559617   0.13120802 -0.1345639   0.01455723  0.1580988 ]","[ 0.34057972 -0.14482103 -0.16968034 -0.18743718 -0.2947996  -0.40560684
  0.36756545  0.16982889 -0.3028293   0.09714584 -0.25159144 -0.20170577
 -0.06904262 -0.28130716 -0.0167942  -0.38014618  0.11471447 -0.21675633
 -0.18267794  0.00432776  0.18055557 -0.00125416 -0.16645911 -0.15923205
 -0.18237635  0.16707252  0.2729595   0.21789022  0.12114839 -0.23582666]"
1,0.070768535,0.09250499,0.018682275,-0.022624671,-0.059114035,-0.21955869,-0.12632397,0.017607778,-0.17582318,0.01711992,-0.31157684,0.03214993,0.00030116254,-0.00093216606,0.028869519,-0.20024164,-0.115136154,0.20042397,0.0020180186,-3.0256651e-06,0.10629024,0.08862855,-0.2111414,0.00013301791,-0.21892165,0.0025301122,0.0025284425,-0.05339898,0.07231754,-0.004568918
